digraph Tree {
node [shape=box, style="filled", color="black"] ;
0 [label="thal <= 2.5\ngini = 0.498\nsamples = 242\nvalue = [114, 128]\nclass = 1", fillcolor="#e9f4fc"] ;
1 [label="oldpeak <= 1.7\ngini = 0.409\nsamples = 150\nvalue = [43, 107]\nclass = 1", fillcolor="#89c4ef"] ;
0 -> 1 [labeldistance=2.5, labelangle=45, headlabel="True"] ;
2 [label="cp <= 0.5\ngini = 0.331\nsamples = 124\nvalue = [26, 98]\nclass = 1", fillcolor="#6eb7ec"] ;
1 -> 2 ;
3 [label="thalach <= 120.0\ngini = 0.472\nsamples = 42\nvalue = [16, 26]\nclass = 1", fillcolor="#b3d9f5"] ;
2 -> 3 ;
4 [label="gini = 0.0\nsamples = 4\nvalue = [4, 0]\nclass = 0", fillcolor="#e58139"] ;
3 -> 4 ;
5 [label="ca <= 0.5\ngini = 0.432\nsamples = 38\nvalue = [12, 26]\nclass = 1", fillcolor="#94caf1"] ;
3 -> 5 ;
6 [label="gini = 0.285\nsamples = 29\nvalue = [5, 24]\nclass = 1", fillcolor="#62b1ea"] ;
5 -> 6 ;
7 [label="gini = 0.346\nsamples = 9\nvalue = [7, 2]\nclass = 0", fillcolor="#eca572"] ;
5 -> 7 ;
8 [label="thalach <= 128.0\ngini = 0.214\nsamples = 82\nvalue = [10, 72]\nclass = 1", fillcolor="#54abe9"] ;
2 -> 8 ;
9 [label="thalach <= 124.0\ngini = 0.444\nsamples = 9\nvalue = [3, 6]\nclass = 1", fillcolor="#9ccef2"] ;
8 -> 9 ;
10 [label="gini = 0.245\nsamples = 7\nvalue = [1, 6]\nclass = 1", fillcolor="#5aade9"] ;
9 -> 10 ;
11 [label="gini = 0.0\nsamples = 2\nvalue = [2, 0]\nclass = 0", fillcolor="#e58139"] ;
9 -> 11 ;
12 [label="restecg <= 0.5\ngini = 0.173\nsamples = 73\nvalue = [7, 66]\nclass = 1", fillcolor="#4ea7e8"] ;
8 -> 12 ;
13 [label="gini = 0.264\nsamples = 32\nvalue = [5, 27]\nclass = 1", fillcolor="#5eafea"] ;
12 -> 13 ;
14 [label="gini = 0.093\nsamples = 41\nvalue = [2, 39]\nclass = 1", fillcolor="#43a2e6"] ;
12 -> 14 ;
15 [label="thalach <= 147.5\ngini = 0.453\nsamples = 26\nvalue = [17, 9]\nclass = 0", fillcolor="#f3c4a2"] ;
1 -> 15 ;
16 [label="ca <= 0.5\ngini = 0.305\nsamples = 16\nvalue = [13, 3]\nclass = 0", fillcolor="#eb9e67"] ;
15 -> 16 ;
17 [label="age <= 60.5\ngini = 0.48\nsamples = 5\nvalue = [3, 2]\nclass = 0", fillcolor="#f6d5bd"] ;
16 -> 17 ;
18 [label="gini = 0.0\nsamples = 3\nvalue = [3, 0]\nclass = 0", fillcolor="#e58139"] ;
17 -> 18 ;
19 [label="gini = 0.0\nsamples = 2\nvalue = [0, 2]\nclass = 1", fillcolor="#399de5"] ;
17 -> 19 ;
20 [label="age <= 63.0\ngini = 0.165\nsamples = 11\nvalue = [10, 1]\nclass = 0", fillcolor="#e88e4d"] ;
16 -> 20 ;
21 [label="gini = 0.0\nsamples = 8\nvalue = [8, 0]\nclass = 0", fillcolor="#e58139"] ;
20 -> 21 ;
22 [label="gini = 0.444\nsamples = 3\nvalue = [2, 1]\nclass = 0", fillcolor="#f2c09c"] ;
20 -> 22 ;
23 [label="cp <= 1.5\ngini = 0.48\nsamples = 10\nvalue = [4, 6]\nclass = 1", fillcolor="#bddef6"] ;
15 -> 23 ;
24 [label="trestbps <= 106.0\ngini = 0.375\nsamples = 4\nvalue = [3, 1]\nclass = 0", fillcolor="#eeab7b"] ;
23 -> 24 ;
25 [label="gini = 0.0\nsamples = 1\nvalue = [0, 1]\nclass = 1", fillcolor="#399de5"] ;
24 -> 25 ;
26 [label="gini = 0.0\nsamples = 3\nvalue = [3, 0]\nclass = 0", fillcolor="#e58139"] ;
24 -> 26 ;
27 [label="chol <= 199.5\ngini = 0.278\nsamples = 6\nvalue = [1, 5]\nclass = 1", fillcolor="#61b1ea"] ;
23 -> 27 ;
28 [label="gini = 0.0\nsamples = 1\nvalue = [1, 0]\nclass = 0", fillcolor="#e58139"] ;
27 -> 28 ;
29 [label="gini = 0.0\nsamples = 5\nvalue = [0, 5]\nclass = 1", fillcolor="#399de5"] ;
27 -> 29 ;
30 [label="oldpeak <= 0.7\ngini = 0.352\nsamples = 92\nvalue = [71, 21]\nclass = 0", fillcolor="#eda674"] ;
0 -> 30 [labeldistance=2.5, labelangle=-45, headlabel="False"] ;
31 [label="cp <= 0.5\ngini = 0.499\nsamples = 29\nvalue = [14, 15]\nclass = 1", fillcolor="#f2f8fd"] ;
30 -> 31 ;
32 [label="oldpeak <= 0.35\ngini = 0.459\nsamples = 14\nvalue = [9, 5]\nclass = 0", fillcolor="#f3c7a7"] ;
31 -> 32 ;
33 [label="age <= 62.5\ngini = 0.426\nsamples = 13\nvalue = [9, 4]\nclass = 0", fillcolor="#f1b991"] ;
32 -> 33 ;
34 [label="gini = 0.375\nsamples = 12\nvalue = [9, 3]\nclass = 0", fillcolor="#eeab7b"] ;
33 -> 34 ;
35 [label="gini = 0.0\nsamples = 1\nvalue = [0, 1]\nclass = 1", fillcolor="#399de5"] ;
33 -> 35 ;
36 [label="gini = 0.0\nsamples = 1\nvalue = [0, 1]\nclass = 1", fillcolor="#399de5"] ;
32 -> 36 ;
37 [label="thalach <= 184.0\ngini = 0.444\nsamples = 15\nvalue = [5, 10]\nclass = 1", fillcolor="#9ccef2"] ;
31 -> 37 ;
38 [label="chol <= 228.0\ngini = 0.408\nsamples = 14\nvalue = [4, 10]\nclass = 1", fillcolor="#88c4ef"] ;
37 -> 38 ;
39 [label="gini = 0.0\nsamples = 6\nvalue = [0, 6]\nclass = 1", fillcolor="#399de5"] ;
38 -> 39 ;
40 [label="gini = 0.5\nsamples = 8\nvalue = [4, 4]\nclass = 0", fillcolor="#ffffff"] ;
38 -> 40 ;
41 [label="gini = 0.0\nsamples = 1\nvalue = [1, 0]\nclass = 0", fillcolor="#e58139"] ;
37 -> 41 ;
42 [label="thalach <= 144.5\ngini = 0.172\nsamples = 63\nvalue = [57, 6]\nclass = 0", fillcolor="#e88e4e"] ;
30 -> 42 ;
43 [label="gini = 0.0\nsamples = 41\nvalue = [41, 0]\nclass = 0", fillcolor="#e58139"] ;
42 -> 43 ;
44 [label="cp <= 1.5\ngini = 0.397\nsamples = 22\nvalue = [16, 6]\nclass = 0", fillcolor="#efb083"] ;
42 -> 44 ;
45 [label="gini = 0.0\nsamples = 12\nvalue = [12, 0]\nclass = 0", fillcolor="#e58139"] ;
44 -> 45 ;
46 [label="chol <= 230.5\ngini = 0.48\nsamples = 10\nvalue = [4, 6]\nclass = 1", fillcolor="#bddef6"] ;
44 -> 46 ;
47 [label="gini = 0.375\nsamples = 4\nvalue = [3, 1]\nclass = 0", fillcolor="#eeab7b"] ;
46 -> 47 ;
48 [label="gini = 0.278\nsamples = 6\nvalue = [1, 5]\nclass = 1", fillcolor="#61b1ea"] ;
46 -> 48 ;
}